tree
version=v3
num_class=1
num_tree_per_iteration=1
label_index=0
max_feature_idx=22
objective=binary sigmoid:1
feature_names=LIMIT_BAL SEX EDUCATION MARRIAGE AGE PAY_0 PAY_2 PAY_3 PAY_4 PAY_5 PAY_6 BILL_AMT1 BILL_AMT2 BILL_AMT3 BILL_AMT4 BILL_AMT5 BILL_AMT6 PAY_AMT1 PAY_AMT2 PAY_AMT3 PAY_AMT4 PAY_AMT5 PAY_AMT6
feature_infos=[10000:800000] [1:2] [0:6] [0:3] [21:79] [-2:8] [-2:8] [-2:8] [-2:8] [-2:7] [-2:8] [-165580:746814] [-69777:743970] [-157264:855086] [-170000:628699] [-81334:823540] [-150953:699944] [0:873552] [0:1227082] [0:889043] [0:621000] [0:388071] [0:528666]
tree_sizes=1667 1694 1618 1674 1646 1441 1448 1646 1522 1538 1286 1275 807 331

Tree=0
num_leaves=15
num_cat=0
split_feature=5 6 19 10 22 0 20 11 10 4 0 21 22 11
split_gain=2760.61 403.75 106.963 81.3384 33.3639 29.3889 28.3264 26.7649 20.824 16.6866 19.6053 14.1439 12.1999 11.6657
threshold=1.5000000000000002 1.5000000000000002 704.50000000000011 1.0000000180025095e-35 3656.5000000000005 45000.000000000007 390.50000000000006 6997.0000000000009 1.0000000180025095e-35 41.500000000000007 165000.00000000003 10025.500000000002 258.50000000000006 2230.0000000000005
decision_type=2 2 2 2 2 2 2 2 2 2 2 2 2 2
left_child=1 2 6 11 9 -4 7 -1 -7 10 -3 13 -11 -2
right_child=3 4 5 -5 -6 8 -8 -9 -10 12 -12 -13 -14 -15
leaf_value=-1.8840682155666264 -1.5944023922196651 -1.6599447991773393 -1.9759178343931265 -0.99419542676104999 -1.9147938524786292 -2.0851100875488431 -2.0181545471308802 -2.0163170226455285 -1.9504894358211442 -1.335762580335301 -1.9240047753055864 -1.704561364098645 -1.6641894430245843 -1.2591193272419425
leaf_count=1927 98 656 1149 609 228 10887 1944 771 443 113 143 61 166 805
internal_value=0 -0.329509 -0.453926 3.83958 1.28635 -0.599934 -0.0590342 0.13928 -0.646931 1.50875 1.23196 3.19566 2.20511 3.30471
internal_count=20000 18427 17121 1573 1306 12479 4642 2698 11330 1078 799 964 279 903
shrinkage=1
leaf_weight=210.04252115637064 10.68197564780712 71.503836989402771 125.24071448296309 66.380848668515682 24.851943343877792 1186.6802946701646 211.89551693201065 84.038808412849903 48.286889918148518 12.316971920430662 15.586964465677736 6.6489848420023909 18.093958750367165 87.744799964129925
internal_weight=0 2008.54 1866.18 171.457 142.354 1360.21 505.977 294.081 1234.97 117.502 87.0908 105.076 30.4109 98.4268


Tree=1
num_leaves=15
num_cat=0
split_feature=5 18 4 8 9 20 8 19 19 0 7 15 22 21
split_gain=121.611 67.5266 45.2682 22.9512 20.7406 18.2856 17.8556 14.1379 12.0221 10.8218 10.0563 9.72529 8.98582 8.44714
threshold=1.0000000180025095e-35 1500.5000000000002 40.500000000000007 1.5000000000000002 1.0000000180025095e-35 389.50000000000006 1.5000000000000002 1000.5000000000001 661.50000000000011 55000.000000000007 1.5000000000000002 226723.00000000003 232.50000000000003 175.50000000000003
decision_type=2 2 2 2 2 2 2 2 2 2 2 2 2 2
left_child=1 6 5 9 7 -2 8 -4 10 -3 -1 -11 -9 -5
right_child=2 3 4 13 -6 -7 -8 12 -10 11 -12 -13 -14 -15
leaf_value=-0.013353098018807116 0.067516356036841155 -0.069854329394384504 0.21932054199738282 0.15746068347278322 0.43532043302052403 -0.088056177839029623 0.14017383311757436 0.19856511853583056 -0.065478399178889438 -0.13395570529729459 0.16990728263585758 -0.012241009459154299 -0.054888116510678292 -0.028055277529269007
leaf_count=2305 656 1590 312 109 93 465 216 55 2569 8394 101 315 148 398
internal_value=0 -0.425015 0.400239 -0.569884 1.00796 0.0183604 -0.135055 0.723963 -0.175105 -0.603017 -0.0195433 -0.649163 0.0718469 0.0542158
internal_count=17726 15997 1729 10806 608 1121 5191 515 4975 10299 2406 8709 203 507
shrinkage=0.2
leaf_weight=250.20778048783541 74.306584008038044 162.81224039942026 38.243534609675407 11.537693575024603 12.667527273297308 49.274213142693043 22.993429213762283 6.8557975962758091 259.66106525808573 833.94997451454401 11.521426290273665 31.080840229988098 17.212814770638943 41.39473070949316
internal_weight=0 1625.16 198.56 1080.78 74.9797 123.581 544.384 62.3121 521.39 1027.84 261.729 865.031 24.0686 52.9324


Tree=2
num_leaves=15
num_cat=0
split_feature=6 20 0 7 11 11 15 22 22 0 21 8 21 20
split_gain=96.0513 43.215 24.7344 24.438 16.9967 10.0656 10.8547 8.22136 8.19439 7.50353 6.24728 11.4147 4.698 4.32141
threshold=1.5000000000000002 150.50000000000003 75000.000000000015 1.5000000000000002 3022.0000000000005 293.50000000000006 226723.00000000003 5701.0000000000009 540.50000000000011 45000.000000000007 688.50000000000011 1.5000000000000002 2022.5000000000002 1000.5000000000001
decision_type=2 2 2 2 2 2 2 2 2 2 2 2 2 2
left_child=1 3 10 4 8 -4 -7 -2 -1 -6 11 -3 -5 -12
right_child=7 2 5 12 9 6 -8 -9 -10 -11 13 -13 -14 -15
leaf_value=0.05818718387898162 0.28061855332473684 -0.011463853096154292 0.0085989506745055028 0.23550428982286031 0.05587613619544473 -0.12417754662624177 -0 0 -0.061626679163034929 -0.11382811127099751 -0.10047155373766453 0.23484570452821771 0 -0.016792264729984695
leaf_count=731 190 364 232 155 94 8311 326 52 288 837 468 71 55 732
internal_value=0 -0.414568 -0.506074 -0.011624 -0.132384 -0.57766 -0.596633 1.19687 0.121164 -0.461526 -0.136415 0.165306 0.922429 -0.262842
internal_count=12906 12664 10504 2160 1950 8869 8637 242 1019 931 1635 435 210 1200
shrinkage=0.2
leaf_weight=81.041174836456776 30.779689237475395 36.455420158803463 22.264947317540646 17.520665116608146 9.7138632610440236 750.4661546126008 31.846138633787632 6.1557025313377371 29.397298134863377 77.766538135707378 45.803345240652561 8.0920840576291067 6.1386186853051177 68.72807814925909
internal_weight=0 1185.23 963.656 221.578 197.919 804.577 782.312 36.9354 110.438 87.4804 159.079 44.5475 23.6593 114.531


Tree=3
num_leaves=15
num_cat=0
split_feature=7 6 0 15 12 0 12 22 22 5 18 0 0 22
split_gain=82.8262 24.4834 13.6416 13.1609 12.3091 8.67951 9.5214 8.08378 6.92829 4.88423 3.74815 8.1423 6.62152 3.18953
threshold=1.5000000000000002 1.5000000000000002 245000.00000000003 226723.00000000003 4447.5000000000009 55000.000000000007 129404.50000000001 633.50000000000011 9907.5000000000018 1.0000000180025095e-35 180.00000000000003 135000.00000000003 115000.00000000001 8528.5000000000018
decision_type=2 2 2 2 2 2 2 2 2 2 2 2 2 2
left_child=1 2 5 4 -4 7 -7 -1 9 10 12 -12 -2 -5
right_child=8 -3 3 13 -6 6 -8 -9 -10 -11 11 -13 -14 -15
leaf_value=-0.091025541831279255 0.11371155243692808 0.15240186610123654 -0.068462259552145896 0.10156321753231717 -0.17378913786170935 -0.097525931036252678 -0.016636881112631889 0.067230988982616049 -0.091005936176257407 0.2118924290277116 0.037767958433833584 0.33321095486697239 -0.024497744593501378 -0.043706683221551107
leaf_count=218 247 81 798 72 2470 5619 913 299 51 107 107 64 215 229
internal_value=0 -0.468943 -0.490796 -0.670884 -0.740213 -0.397557 -0.434519 -0 0.513356 0.585078 0.423566 0.826716 0.244608 -0.000579904
internal_count=11490 10699 10618 3569 3268 7049 6532 517 791 740 633 171 462 301
shrinkage=0.2
leaf_weight=21.545508094131947 27.898957848548889 14.403114341199396 68.489389672875404 7.0442852526903179 200.26801799237728 468.04711309075356 73.987733706831932 29.209494702517986 5.086233213543891 19.356426820158958 11.748250499367716 6.5119775459170333 22.444521859288216 22.349485993385315
internal_weight=0 905.344 890.941 298.151 268.757 592.79 542.035 50.755 93.0464 87.9601 68.6037 18.2602 50.3435 29.3938


Tree=4
num_leaves=15
num_cat=0
split_feature=6 8 10 11 11 20 1 21 21 12 18 12 14 16
split_gain=48.2773 16.4864 13.3491 9.64032 12.135 5.23846 4.76434 3.91461 3.19936 2.64654 1.80292 1.68287 2.06208 0.290771
threshold=1.5000000000000002 1.5000000000000002 1.0000000180025095e-35 1507.5000000000002 135100.00000000003 320.50000000000006 1.5000000000000002 1400.5000000000002 108.50000000000001 36408.000000000007 6038.0000000000009 2520.5000000000005 30391.000000000004 5858.5000000000009
decision_type=2 2 2 2 2 2 2 2 2 2 2 2 2 2
left_child=1 2 3 6 -5 13 -1 -7 10 -9 -4 -2 -13 -3
right_child=11 5 8 4 -6 7 -8 9 -10 -11 -12 12 -14 -15
leaf_value=0.033628533687480373 0.039357812881025647 0.19077339512557623 0.028389007971418048 -0.1202545179878229 -0.05062450407166097 -0.1078694820192399 -0.064033085435073189 0.15593133866287373 0.13895703009724966 -0 -0.10553327186619173 0.23457691319930479 0.072622985963668271 0.035213095850850404
leaf_count=326 52 51 166 6941 1800 93 651 55 92 113 51 71 53 53
internal_value=0 -0.431019 -0.462638 -0.488065 -0.529032 0.203066 -0.146021 -0.0268571 0.201023 0.238145 -0 0.737745 0.886805 0.728244
internal_count=10568 10392 10027 9718 8741 365 977 261 309 168 217 176 124 104
shrinkage=0.2
leaf_weight=27.322442919015884 9.6134296655654889 6.5405997112393361 14.297811962664133 517.92217970639467 140.40871644020081 9.3386228010058421 54.998610153794289 4.8766235634684554 7.9385530352592459 10.445160858333109 4.368255376815795 14.68695215880871 11.172293171286581 5.2109939679503441
internal_weight=0 803.669 767.257 740.652 658.331 36.412 82.3211 24.6604 26.6046 15.3218 18.6661 35.4727 25.8592 11.7516


Tree=5
num_leaves=13
num_cat=0
split_feature=7 10 12 0 15 12 17 20 11 15 14 18
split_gain=16.3917 10.6783 7.90389 7.65218 10.9943 6.71121 5.04311 4.98815 3.25422 2.91041 6.50634 2.94695
threshold=1.5000000000000002 1.0000000180025095e-35 -129.99999999999997 245000.00000000003 226723.00000000003 79017.500000000015 1799.5000000000002 127.50000000000001 44045.500000000007 99314.500000000015 43938.500000000007 2640.5000000000005
decision_type=2 2 2 2 2 2 2 2 2 2 2 2
left_child=1 2 -1 5 -5 -4 -2 -8 -9 10 11 -3
right_child=6 9 3 4 -6 -7 7 8 -10 -11 -12 -13
leaf_value=0.11102772696104074 -0.053749965589111152 0.16100796155906155 -0.088726416308317513 -0.13434933909884972 0 -0.031941179139241875 0.2118175736034123 -0.058077663841191299 0.11472860564056216 0.13233640309424019 -0.12877574092948788 -0.002952946389213458
leaf_count=81 57 77 4180 3139 288 1911 67 86 68 82 93 55
internal_value=0 -0.406288 -0.431993 -0.443666 -0.595346 -0.356641 0.291145 0.53441 0.0682077 0.166397 -0 0.43366
internal_count=10184 9906 9599 9518 3427 6091 278 221 154 307 225 132
shrinkage=0.2
leaf_weight=6.3227653428912154 8.7249108850955945 7.2823966220021301 293.93133118003607 210.16374706476927 26.655379310250282 136.16707274317741 9.8238152936100978 7.5576796978712064 6.9150415882468224 7.495735988020896 8.8517432212829572 4.5964211598038673
internal_weight=0 701.467 673.24 666.918 236.819 430.098 33.0214 24.2965 14.4727 28.2263 20.7306 11.8788


Tree=6
num_leaves=13
num_cat=0
split_feature=10 18 11 22 18 0 12 14 22 22 13 15
split_gain=9.39622 7.89201 7.45597 10.4198 12.5481 8.79646 17.7083 7.86336 4.81357 3.65973 2.61644 3.1215
threshold=1.0000000180025095e-35 19974.000000000004 135100.00000000003 4500.5000000000009 5500.5000000000009 145000.00000000003 5429.0000000000009 188695.50000000003 2501.0000000000005 3368.5000000000005 276161.50000000006 2686.5000000000005
decision_type=2 2 2 2 2 2 2 2 2 2 2 2
left_child=1 2 5 4 -4 8 -7 -5 -1 -2 11 -3
right_child=9 10 3 7 -6 6 -8 -9 -10 -11 -12 -13
leaf_value=-0.013926560666140919 -0.0036305813133996369 -0 0.19121045817643062 -0.11845625699191485 -0.032531292125717239 -0.036468742850833166 -0.14171880393024258 0.0014919196996429577 -0.083958705334974404 0.16436537129265161 -0 -0.18966822545714043
leaf_count=1613 57 80 237 647 299 1604 2927 463 1079 70 76 659
internal_value=0 -0.382088 -0.344623 -0.106112 0.315254 -0.402063 -0.512591 -0.313429 -0.215504 0.363379 -0.771174 -0.855224
internal_count=9811 9684 8869 1646 536 7223 4531 1110 2692 127 815 739
shrinkage=0.2
leaf_weight=107.44744044542313 7.6531688719987851 5.2027173750102511 16.219732742756605 44.175249442458153 20.656023312360048 110.0100115314126 178.32405567914248 36.117599260061979 70.486453264951706 7.5900163128972054 6.2768605388700953 40.244923409074545
internal_weight=0 635.161 583.437 117.169 36.8758 466.268 288.334 80.2928 177.934 15.2432 51.7245 45.4476


Tree=7
num_leaves=15
num_cat=0
split_feature=10 13 16 11 10 21 2 21 10 16 19 19 21 19
split_gain=5.52899 3.37545 6.4256 5.68866 5.52122 5.85087 4.96792 4.09044 3.9122 2.56782 1.93946 2.6429 1.51404 1.20515
threshold=1.0000000180025095e-35 55976.500000000007 28085.500000000004 19437.500000000004 -1.4999999999999998 3369.0000000000005 1.5000000000000002 6277.5000000000009 -1.0000000180025095e-35 8190.5000000000009 18001.000000000004 2500.5000000000005 1020.5000000000001 3059.5000000000005
decision_type=2 2 2 2 2 2 2 2 2 2 2 2 2 2
left_child=1 3 8 4 9 -6 13 -8 -3 -1 11 -5 -10 -4
right_child=-2 2 6 10 5 -7 7 -9 12 -11 -12 -13 -14 -15
leaf_value=-0.10335106289685905 0.12069724775496773 -0 -0.16367948012880529 -0.069934353888373935 0.032754473412718983 -0.067318341793716749 -0.022971978405986665 0.070923382715963532 0.27065988086035075 0.027507436183368223 0 -0.18275107838392113 0.026015435273890913 -0.049796619503171762
leaf_count=521 70 92 115 699 1093 519 897 337 68 64 60 251 63 435
internal_value=0 -0.152203 -0.0204423 -0.231612 -0.112386 0 -0.105027 0.0231978 0.571853 -0.424757 -0.482628 -0.527911 0.963002 -0.398823
internal_count=5284 5214 2007 3207 2197 1612 1784 1234 223 585 1010 950 131 550
shrinkage=0.2
leaf_weight=35.917204968631268 8.5070381313562375 5.9579892866313449 7.1714424304664126 44.423435054719448 73.688190214335918 32.961470119655132 56.407324969768524 25.861229203641415 4.7232215441763383 4.0170698016881934 3.7451093569397917 16.023202564567327 4.038586437702179 31.216741193085909
internal_weight=0 346.152 135.377 210.776 146.584 106.65 120.657 82.2686 14.7198 39.9343 64.1917 60.4466 8.76181 38.3882


Tree=8
num_leaves=14
num_cat=0
split_feature=21 2 15 2 18 13 11 19 18 11 17 22 17
split_gain=7.43939 5.61153 5.92431 3.03649 5.96996 7.02588 5.82999 4.42948 3.25841 1.91685 1.39869 0.871411 0.461755
threshold=5081.5000000000009 2.5000000000000004 77744.000000000015 1.5000000000000002 1932.5000000000002 4843.0000000000009 20361.000000000004 4000.5000000000005 1500.5000000000002 112112.00000000001 5500.5000000000009 5000.5000000000009 1511.5000000000002
decision_type=2 2 2 2 2 2 2 2 2 2 2 2 2
left_child=1 3 11 6 8 -6 7 -1 -5 -8 -4 12 -3
right_child=-2 2 10 4 5 -7 9 -9 -10 -11 -12 -13 -14
leaf_value=0.038980466122286131 -0.15790473361112836 -0.038188905759877823 -0 -0.00030119273613935904 0.20922421207980296 0.022488294902269234 -0.13790657850214777 -0.089999125977382438 -0.139785091340248 0 0.14119074594128084 -0 -0.1423882148392302
leaf_count=552 267 129 50 360 144 1062 346 216 163 50 50 50 422
internal_value=0 -0.0977757 -0.41148 -0.0152036 0.083866 0.247704 -0.172462 0.0014029 -0.236867 -0.565724 0.330593 -0.572201 -0.614635
internal_count=3861 3594 701 2893 1729 1206 1164 768 523 396 100 601 551
shrinkage=0.2
leaf_weight=38.085976574569941 16.422180775552988 9.0838136374950391 3.2253262028098098 25.560372296720743 8.9452878907322866 66.928698670119047 20.110222008079294 13.542619932442902 9.8522964604198915 4.2616921961307517 3.5008652471005917 2.9371518492698661 26.313734281808138
internal_weight=0 232.348 45.0609 187.287 111.287 75.874 76.0005 51.6286 35.4127 24.3719 6.72619 38.3347 35.3975


Tree=9
num_leaves=14
num_cat=0
split_feature=21 14 11 19 15 14 0 16 14 20 16 17 17
split_gain=6.92151 2.64517 3.30389 6.77881 7.63889 4.1751 3.45214 3.13419 2.61268 2.36849 1.75345 1.13787 0.167265
threshold=5081.5000000000009 979.00000000000011 19437.500000000004 1600.5000000000002 10256.500000000002 54843.000000000007 95000.000000000015 742.50000000000011 45382.000000000007 279.50000000000006 780.50000000000011 998.50000000000011 9355.0000000000018
decision_type=2 2 2 2 2 2 2 2 2 2 2 2 2
left_child=1 7 3 4 -3 8 -7 9 -4 11 -5 -1 -2
right_child=12 2 5 10 -6 6 -8 -9 -10 -11 -12 -13 -14
leaf_value=-0.14062275675699429 -0.16492976852015215 0.052294225267585141 -0.022274241234826762 -0.092371990866790959 0.38468237224831187 0.11481546835125422 -0.0032736052261881938 -0.16757463312501095 -0.14574183670615645 0.070017883708032677 0.015336253578380837 -0 -0
leaf_count=52 217 211 537 110 50 188 559 102 193 94 242 64 50
internal_value=0 -0.0249513 0.0234462 0.261842 0.708548 -0.0747907 0.106521 -0.3349 -0.312145 -0.00263548 -0.0643572 -0.380729 -0.739094
internal_count=2669 2402 2090 613 261 1477 747 312 730 210 352 116 267
shrinkage=0.2
leaf_weight=4.1826711185276526 11.560174848884342 14.657386519014837 30.312253683805466 7.2254550606012371 3.3556418195366851 11.171875454485415 38.039857726544142 7.2661104798316947 10.941794119775293 6.7048297561705104 15.548665858805178 4.6430812776088715 2.7699537575244895
internal_weight=0 154.05 131.253 40.7871 18.013 90.4658 49.2117 22.7967 41.254 15.5306 22.7741 8.82575 14.3301


Tree=10
num_leaves=12
num_cat=0
split_feature=7 21 21 18 14 12 19 14 13 20 20
split_gain=2.48608 2.78023 4.99681 3.35841 3.01677 4.6809 2.7452 3.08312 2.50422 1.6892 0.969738
threshold=-1.4999999999999998 2452.5000000000005 999.50000000000011 3704.5000000000005 1374.0000000000002 63013.500000000007 1.0000000180025095e-35 3520.5000000000005 92500.000000000015 5088.0000000000009 728.50000000000011
decision_type=2 2 2 2 2 2 2 2 2 2 2
left_child=10 2 6 -3 -4 -6 -2 -8 -5 -10 -1
right_child=1 3 4 8 5 -7 7 -9 9 -11 -12
leaf_value=-0.13355570960223445 0.093743580337712989 -0.1426118145289616 -0 0.12584466663460581 0.28624155436933124 0 -0.10360267361362459 0.025519597319267069 -0.065251851517077492 0.054599569809673371 -0
leaf_count=99 97 122 59 74 81 77 185 128 231 56 83
internal_value=0 0.0410322 0.203509 -0.171696 0.658195 0.91008 -0 -0.190434 0 -0.13957 -0.434135
internal_count=1292 1110 627 483 217 158 410 313 361 287 182
shrinkage=0.2
leaf_weight=6.4915887750685197 7.3336683399975326 7.4531374201178577 4.0306075364351264 4.3368966579437283 6.1605092994868738 4.8967564292252064 13.166147302836182 11.045853570103644 14.951115354895594 4.1324050724506369 5.0882859192788601
internal_weight=0 77.5071 46.6335 30.8736 15.0879 11.0573 31.5457 24.212 23.4204 19.0835 11.5799


Tree=11
num_leaves=12
num_cat=0
split_feature=15 18 19 18 14 15 0 21 12 11 13
split_gain=4.56999 4.63288 7.18894 1.52329 1.98523 5.36681 1.03423 0.710931 0.619417 0.604307 1.17368
threshold=833.00000000000011 3814.5000000000005 1192.5000000000002 5500.5000000000009 126444.00000000001 20946.000000000004 185000.00000000003 3000.5000000000005 205960.00000000003 293.50000000000006 6341.5000000000009
decision_type=2 2 2 2 2 2 2 2 2 2 2
left_child=9 2 6 7 5 -5 -2 -3 -6 -1 -11
right_child=1 3 -4 4 8 -7 -8 -9 -10 10 -12
leaf_value=-0 0.03192874810179102 -0 0.23778052350178736 -0.084490815427034169 -0.093644844784812248 0.17354487874637561 -0.087052401439753402 -0.13930286125417099 0 -0.16733084586569891 -0
leaf_count=56 57 53 96 50 68 92 52 74 63 128 50
internal_value=0 0.0929748 0.525269 -0.120074 0 0.326509 -0.0170082 -0.454002 -0.269245 -0.519005 -0.646272
internal_count=839 605 205 400 273 142 109 127 131 234 178
shrinkage=0.2
leaf_weight=4.2811736427247515 4.6081181243062002 3.9739770479500311 7.3367364294826976 3.6113176830112952 5.4163417406380159 6.6258010715246201 3.7188499085605145 4.4837285615503788 4.4435313977301121 7.7478921674191934 3.1030896045267582
internal_weight=0 44.2184 15.6637 28.5547 20.097 10.2371 8.32697 8.45771 9.85987 15.1322 10.851


Tree=12
num_leaves=7
num_cat=0
split_feature=20 16 4 19 22 21
split_gain=4.36631 4.6564 2.33323 3.37401 2.89607 7.77689
threshold=1600.5000000000002 1150.5000000000002 28.500000000000004 4938.0000000000009 3100.5000000000005 3564.0000000000005
decision_type=2 2 2 2 2 2
left_child=1 -1 -2 4 -4 -6
right_child=2 -3 3 -5 5 -7
leaf_value=-0 0.082630265805520367 0.22483932209981977 -0.090554475580248775 -0.1496871516423986 0.24880906494261348 -0.08571977657474357
leaf_count=64 74 72 77 96 51 58
internal_value=0 0.641798 -0.057276 -0.24264 0 0.414935
internal_count=492 136 356 282 186 109
shrinkage=0.2
leaf_weight=4.4399187341332418 5.6359728015959289 6.6125521510839462 5.4076956436038044 7.3279334567487231 4.4893802367150766 3.7019307166337967
internal_weight=0 11.0525 26.5629 20.9269 13.599 8.19131


Tree=13
num_leaves=2
num_cat=0
split_feature=22
split_gain=5.49251
threshold=3100.5000000000005
decision_type=2
left_child=-1
right_child=-2
leaf_value=-0.080838323768918197 0.17579383348155947
leaf_count=77 51
internal_value=0
internal_count=128
shrinkage=0.2
leaf_weight=5.0111867561936378 5.3754435367882252
internal_weight=0


end of trees

feature importances:
PAY_AMT5=15
PAY_AMT6=14
LIMIT_BAL=13
BILL_AMT1=13
PAY_AMT2=11
PAY_AMT3=11
BILL_AMT5=10
PAY_AMT4=10
BILL_AMT2=9
BILL_AMT4=9
PAY_6=8
BILL_AMT6=6
PAY_3=5
BILL_AMT3=5
PAY_AMT1=5
PAY_2=4
PAY_4=4
EDUCATION=3
AGE=3
PAY_0=3
SEX=1
PAY_5=1

parameters:
[boosting: gbdt]
[objective: binary]
[metric: auc]
[tree_learner: serial]
[device_type: cpu]
[data: ]
[valid: ]
[num_iterations: 100]
[learning_rate: 0.2]
[num_leaves: 15]
[num_threads: 0]
[max_depth: 5]
[min_data_in_leaf: 50]
[min_sum_hessian_in_leaf: 0.001]
[bagging_fraction: 1]
[pos_bagging_fraction: 1]
[neg_bagging_fraction: 1]
[bagging_freq: 0]
[bagging_seed: 17422]
[feature_fraction: 1]
[feature_fraction_bynode: 1]
[feature_fraction_seed: 7040]
[early_stopping_round: 0]
[convergence_criteria: -1]
[first_metric_only: 0]
[max_delta_step: 0]
[lambda_l1: 1]
[lambda_l2: 1]
[min_gain_to_split: 0]
[drop_rate: 0.1]
[max_drop: 50]
[skip_drop: 0.5]
[xgboost_dart_mode: 0]
[uniform_drop: 0]
[drop_seed: 15215]
[top_rate: 0.2]
[other_rate: 0.1]
[min_data_per_group: 100]
[max_cat_threshold: 32]
[cat_l2: 10]
[cat_smooth: 10]
[max_cat_to_onehot: 4]
[top_k: 20]
[monotone_constraints: ]
[feature_contri: ]
[forcedsplits_filename: ]
[forcedbins_filename: ]
[refit_decay_rate: 0.9]
[cegb_tradeoff: 1]
[cegb_penalty_split: 0]
[cegb_penalty_feature_lazy: ]
[cegb_penalty_feature_coupled: ]
[verbosity: 1]
[max_bin: 255]
[max_bin_by_feature: ]
[min_data_in_bin: 1]
[bin_construct_sample_cnt: 200000]
[histogram_pool_size: -1]
[data_random_seed: 61]
[output_model: LightGBM_model.txt]
[snapshot_freq: -1]
[input_model: ]
[output_result: LightGBM_predict_result.txt]
[initscore_filename: ]
[valid_data_initscores: ]
[pre_partition: 0]
[enable_bundle: 1]
[max_conflict_rate: 0]
[is_enable_sparse: 1]
[sparse_threshold: 0.8]
[use_missing: 1]
[zero_as_missing: 0]
[two_round: 0]
[save_binary: 0]
[header: 0]
[label_column: ]
[weight_column: ]
[group_column: ]
[ignore_column: ]
[categorical_feature: ]
[predict_raw_score: 0]
[predict_leaf_index: 0]
[predict_contrib: 0]
[num_iteration_predict: -1]
[pred_early_stop: 0]
[pred_early_stop_freq: 10]
[pred_early_stop_margin: 10]
[convert_model_language: ]
[convert_model: gbdt_prediction.cpp]
[num_class: 1]
[is_unbalance: 0]
[scale_pos_weight: 1]
[sigmoid: 1]
[boost_from_average: 1]
[reg_sqrt: 0]
[alpha: 0.9]
[fair_c: 1]
[poisson_max_delta_step: 0.7]
[tweedie_variance_power: 1.5]
[max_position: 20]
[lambdamart_norm: 1]
[label_gain: ]
[metric_freq: 1]
[is_provide_training_metric: 0]
[eval_at: ]
[multi_error_top_k: 1]
[num_machines: 1]
[local_listen_port: 12400]
[time_out: 120]
[machine_list_filename: ]
[machines: ]
[gpu_platform_id: -1]
[gpu_device_id: -1]
[gpu_use_dp: 0]

end of parameters

pandas_categorical:[]
